{
  "metadata": {
    "date": "2025-12-04",
    "n_rounds": 50,
    "n_replications": 30,
    "base_config": {
      "n_agents": 16,
      "n_rounds": 50,
      "n_groups": 2,
      "lambda_loss": 2.25,
      "initial_group_bias": 0.8,
      "n_initial_rounds": 10,
      "info_treatment": "full",
      "matching_type": "random",
      "recency_decay": 0.9,
      "min_history_for_belief": 1
    },
    "weight_configurations": {
      "Recent-dominant": {
        "recent": 0.9,
        "group": 0.05,
        "global": 0.05
      },
      "Group-dominant": {
        "recent": 0.05,
        "group": 0.9,
        "global": 0.05
      },
      "Global-dominant": {
        "recent": 0.05,
        "group": 0.05,
        "global": 0.9
      },
      "Balanced": {
        "recent": 0.33,
        "group": 0.33,
        "global": 0.34
      },
      "Original": {
        "recent": 0.5,
        "group": 0.3,
        "global": 0.2
      }
    }
  },
  "results": {
    "coordination": {
      "Recent-dominant": {
        "weights": {
          "recent": 0.9,
          "group": 0.05,
          "global": 0.05
        },
        "statistics": {
          "final_coordination_rate": {
            "mean": 0.8947916666666668,
            "std": 0.02652073711506595,
            "se": 0.004842001986528701,
            "ci_95_lower": 0.8848886606765528,
            "ci_95_upper": 0.9046946726567807,
            "n": 30,
            "raw_values": [
              0.90625,
              0.91875,
              0.93125,
              0.85625,
              0.8875,
              0.91875,
              0.86875,
              0.875,
              0.9125,
              0.90625,
              0.90625,
              0.90625,
              0.90625,
              0.89375,
              0.8625,
              0.81875,
              0.875,
              0.8875,
              0.925,
              0.9375,
              0.86875,
              0.89375,
              0.89375,
              0.91875,
              0.91875,
              0.88125,
              0.91875,
              0.9125,
              0.875,
              0.8625
            ]
          },
          "final_group_favoritism": {
            "mean": -0.026458333333333344,
            "std": 0.05379556230718629,
            "se": 0.00982168098977353,
            "ci_95_lower": -0.046545926429189435,
            "ci_95_upper": -0.006370740237477256,
            "n": 30,
            "raw_values": [
              -0.09583333333333321,
              0.03541666666666676,
              -0.016666666666666607,
              -0.09583333333333344,
              -0.04166666666666685,
              -0.11875000000000024,
              -0.07916666666666683,
              -0.02499999999999991,
              -0.0625,
              -0.03333333333333344,
              -0.025000000000000022,
              -0.006249999999999978,
              -0.012500000000000067,
              0.043749999999999956,
              -0.10208333333333341,
              0.02083333333333337,
              -0.08333333333333315,
              -0.05208333333333337,
              0.04166666666666663,
              0.09791666666666665,
              0.0625,
              -0.06249999999999989,
              0.04166666666666663,
              -0.002083333333333215,
              -0.06458333333333333,
              -0.0687500000000002,
              -0.025000000000000022,
              -0.03541666666666654,
              0.016666666666666607,
              -0.04583333333333317
            ]
          },
          "overall_coordination_rate": {
            "mean": 0.7362500000000001,
            "std": 0.043060452693938295,
            "se": 0.007861727092284701,
            "ci_95_lower": 0.7201709627125017,
            "ci_95_upper": 0.7523290372874984,
            "n": 30,
            "raw_values": [
              0.7175,
              0.8075,
              0.81,
              0.74,
              0.79,
              0.735,
              0.735,
              0.7025,
              0.7725,
              0.7175,
              0.7775,
              0.7525,
              0.71,
              0.735,
              0.6675,
              0.6325,
              0.7525,
              0.7,
              0.7325,
              0.755,
              0.75,
              0.74,
              0.79,
              0.805,
              0.7025,
              0.7175,
              0.6975,
              0.74,
              0.745,
              0.6575
            ]
          },
          "group0_prop_A": {
            "mean": 0.5241666666666668,
            "std": 0.3044046856467196,
            "se": 0.05557643764632579
          },
          "group1_prop_A": {
            "mean": 0.38858333333333334,
            "std": 0.2979467692371417,
            "se": 0.05439738881565627
          }
        }
      },
      "Group-dominant": {
        "weights": {
          "recent": 0.05,
          "group": 0.9,
          "global": 0.05
        },
        "statistics": {
          "final_coordination_rate": {
            "mean": 0.8275000000000001,
            "std": 0.08148341802964026,
            "se": 0.014876768705819042,
            "ci_95_lower": 0.7970735916637068,
            "ci_95_upper": 0.8579264083362934,
            "n": 30,
            "raw_values": [
              0.86875,
              0.825,
              0.88125,
              0.8625,
              0.86875,
              0.85,
              0.88125,
              0.8,
              0.925,
              0.825,
              0.7,
              0.80625,
              0.88125,
              0.8625,
              0.69375,
              0.925,
              0.71875,
              0.725,
              0.7375,
              0.925,
              0.71875,
              0.9125,
              0.9,
              0.91875,
              0.93125,
              0.68125,
              0.69375,
              0.83125,
              0.825,
              0.85
            ]
          },
          "final_group_favoritism": {
            "mean": 0.09159722222222225,
            "std": 0.15413898024666406,
            "se": 0.028141798823980373,
            "ci_95_lower": 0.03404078108448235,
            "ci_95_upper": 0.14915366335996214,
            "n": 30,
            "raw_values": [
              -0.15833333333333333,
              0.22916666666666674,
              0.05833333333333324,
              -0.03333333333333344,
              -0.07916666666666683,
              -0.025000000000000244,
              -0.012500000000000178,
              0.1791666666666668,
              -0.04166666666666674,
              0.008333333333333193,
              0.3875000000000002,
              0.2124999999999999,
              0.02083333333333337,
              0.10208333333333341,
              0.21666666666666667,
              -0.07083333333333341,
              0.33333333333333337,
              0.19166666666666687,
              0.23750000000000004,
              0.054166666666666696,
              0.2875000000000001,
              -0.008333333333333193,
              -0.09999999999999998,
              0.002083333333333659,
              0.09166666666666679,
              0.3583333333333333,
              0.31041666666666656,
              -0.04583333333333339,
              0.12916666666666665,
              -0.08749999999999991
            ]
          },
          "overall_coordination_rate": {
            "mean": 0.7031666666666668,
            "std": 0.05583200375840151,
            "se": 0.010193482629729907,
            "ci_95_lower": 0.6823186538357784,
            "ci_95_upper": 0.7240146794975553,
            "n": 30,
            "raw_values": [
              0.7075,
              0.7,
              0.7225,
              0.7075,
              0.7575,
              0.665,
              0.735,
              0.6875,
              0.7675,
              0.73,
              0.675,
              0.7025,
              0.7225,
              0.69,
              0.63,
              0.755,
              0.6575,
              0.6275,
              0.6125,
              0.775,
              0.6075,
              0.745,
              0.7425,
              0.8125,
              0.78,
              0.6075,
              0.6125,
              0.705,
              0.73,
              0.725
            ]
          },
          "group0_prop_A": {
            "mean": 0.673,
            "std": 0.12603605121907205,
            "se": 0.023010929437187418
          },
          "group1_prop_A": {
            "mean": 0.28016666666666673,
            "std": 0.12728080098290778,
            "se": 0.023238188611888103
          }
        }
      },
      "Global-dominant": {
        "weights": {
          "recent": 0.05,
          "group": 0.05,
          "global": 0.9
        },
        "statistics": {
          "final_coordination_rate": {
            "mean": 0.8741666666666668,
            "std": 0.07590569050192954,
            "se": 0.01385841964363748,
            "ci_95_lower": 0.8458230160183853,
            "ci_95_upper": 0.9025103173149482,
            "n": 30,
            "raw_values": [
              0.88125,
              0.91875,
              0.93125,
              0.85625,
              0.8875,
              0.91875,
              0.7625,
              0.85625,
              0.9125,
              0.8875,
              0.76875,
              0.90625,
              0.90625,
              0.89375,
              0.90625,
              0.5375,
              0.875,
              0.825,
              0.91875,
              0.9375,
              0.86875,
              0.89375,
              0.90625,
              0.91875,
              0.91875,
              0.9125,
              0.8625,
              0.9125,
              0.86875,
              0.875
            ]
          },
          "final_group_favoritism": {
            "mean": -0.02138888888888887,
            "std": 0.05364730380568451,
            "se": 0.009794612814568717,
            "ci_95_lower": -0.04142112135045763,
            "ci_95_upper": -0.0013566564273201076,
            "n": 30,
            "raw_values": [
              -0.08333333333333315,
              0.03541666666666676,
              -0.016666666666666607,
              -0.09583333333333344,
              -0.04166666666666685,
              -0.11875000000000024,
              -0.012499999999999956,
              -0.054166666666666696,
              -0.0625,
              -0.004166666666666541,
              0.012500000000000067,
              -0.006249999999999978,
              -0.012500000000000067,
              0.043749999999999956,
              -0.012499999999999956,
              0.033333333333333326,
              -0.08333333333333315,
              0.07083333333333319,
              0.029166666666666563,
              0.09791666666666665,
              0.0625,
              -0.06249999999999989,
              -0.0625,
              -0.002083333333333215,
              -0.06458333333333333,
              -0.058333333333333126,
              -0.07916666666666661,
              -0.03541666666666654,
              0.004166666666666652,
              -0.0625
            ]
          },
          "overall_coordination_rate": {
            "mean": 0.7104999999999999,
            "std": 0.06516689449353126,
            "se": 0.011897792705555422,
            "ci_95_lower": 0.6861662816826477,
            "ci_95_upper": 0.7348337183173521,
            "n": 30,
            "raw_values": [
              0.635,
              0.7525,
              0.8075,
              0.73,
              0.7625,
              0.72,
              0.6725,
              0.6675,
              0.745,
              0.6875,
              0.655,
              0.775,
              0.745,
              0.725,
              0.7225,
              0.485,
              0.7375,
              0.6375,
              0.695,
              0.6975,
              0.725,
              0.76,
              0.79,
              0.805,
              0.685,
              0.725,
              0.61,
              0.755,
              0.725,
              0.68
            ]
          },
          "group0_prop_A": {
            "mean": 0.544,
            "std": 0.29953311370680963,
            "se": 0.054687014365659835
          },
          "group1_prop_A": {
            "mean": 0.414,
            "std": 0.27892697721928883,
            "se": 0.0509248657732447
          }
        }
      },
      "Balanced": {
        "weights": {
          "recent": 0.33,
          "group": 0.33,
          "global": 0.34
        },
        "statistics": {
          "final_coordination_rate": {
            "mean": 0.8368750000000003,
            "std": 0.08175983938466916,
            "se": 0.014927236109660865,
            "ci_95_lower": 0.8063453742334082,
            "ci_95_upper": 0.8674046257665923,
            "n": 30,
            "raw_values": [
              0.675,
              0.84375,
              0.93125,
              0.84375,
              0.8875,
              0.9125,
              0.80625,
              0.7875,
              0.75,
              0.89375,
              0.85625,
              0.90625,
              0.90625,
              0.88125,
              0.73125,
              0.65,
              0.83125,
              0.78125,
              0.925,
              0.89375,
              0.8625,
              0.8875,
              0.90625,
              0.91875,
              0.90625,
              0.88125,
              0.73125,
              0.8625,
              0.7875,
              0.66875
            ]
          },
          "final_group_favoritism": {
            "mean": -0.003125000000000033,
            "std": 0.13342282153198365,
            "se": 0.02435956301301781,
            "ci_95_lower": -0.052945900343623474,
            "ci_95_upper": 0.04669590034362341,
            "n": 30,
            "raw_values": [
              0.37499999999999994,
              -0.045833333333333504,
              -0.016666666666666607,
              -0.12083333333333335,
              -0.04166666666666685,
              -0.11249999999999993,
              -0.12500000000000022,
              -0.029166666666666785,
              0.25416666666666665,
              -0.05833333333333346,
              -0.01666666666666672,
              -0.006249999999999978,
              -0.012500000000000067,
              0.025000000000000022,
              -0.033333333333333326,
              0.3666666666666667,
              -0.0375000000000002,
              -0.15208333333333313,
              0.04166666666666663,
              -0.03333333333333344,
              0.07499999999999996,
              -0.07499999999999984,
              -0.0625,
              -0.002083333333333215,
              -0.08958333333333335,
              -0.0687500000000002,
              0.06874999999999998,
              -0.15625,
              -0.14166666666666672,
              0.13749999999999996
            ]
          },
          "overall_coordination_rate": {
            "mean": 0.695,
            "std": 0.059585493490301476,
            "se": 0.010878772961571784,
            "ci_95_lower": 0.6727504110689616,
            "ci_95_upper": 0.7172495889310383,
            "n": 30,
            "raw_values": [
              0.575,
              0.735,
              0.805,
              0.675,
              0.76,
              0.6975,
              0.7025,
              0.635,
              0.6625,
              0.7025,
              0.7375,
              0.7675,
              0.7375,
              0.6775,
              0.6375,
              0.59,
              0.69,
              0.6125,
              0.73,
              0.715,
              0.7175,
              0.7125,
              0.785,
              0.7725,
              0.7225,
              0.7075,
              0.6075,
              0.6925,
              0.6925,
              0.595
            ]
          },
          "group0_prop_A": {
            "mean": 0.578,
            "std": 0.2702301062887471,
            "se": 0.04933704164378848
          },
          "group1_prop_A": {
            "mean": 0.3448333333333334,
            "std": 0.24057665397286912,
            "se": 0.04392308673001842
          }
        }
      },
      "Original": {
        "weights": {
          "recent": 0.5,
          "group": 0.3,
          "global": 0.2
        },
        "statistics": {
          "final_coordination_rate": {
            "mean": 0.8633333333333334,
            "std": 0.0735076624358414,
            "se": 0.013420601621861828,
            "ci_95_lower": 0.8358851210810474,
            "ci_95_upper": 0.8907815455856194,
            "n": 30,
            "raw_values": [
              0.8875,
              0.90625,
              0.93125,
              0.85625,
              0.8875,
              0.91875,
              0.825,
              0.86875,
              0.9125,
              0.61875,
              0.90625,
              0.90625,
              0.90625,
              0.875,
              0.8125,
              0.81875,
              0.85625,
              0.7,
              0.925,
              0.9375,
              0.86875,
              0.89375,
              0.89375,
              0.91875,
              0.91875,
              0.88125,
              0.71875,
              0.89375,
              0.86875,
              0.7875
            ]
          },
          "final_group_favoritism": {
            "mean": -0.02875000000000003,
            "std": 0.07861155957523411,
            "se": 0.014352441486672318,
            "ci_95_lower": -0.05810403876551741,
            "ci_95_upper": 0.0006040387655173556,
            "n": 30,
            "raw_values": [
              -0.11249999999999993,
              0.01041666666666674,
              -0.016666666666666607,
              -0.09583333333333344,
              -0.04166666666666685,
              -0.11875000000000024,
              -0.13750000000000007,
              -0.033333333333333326,
              -0.0625,
              0.10833333333333339,
              -0.025000000000000022,
              -0.006249999999999978,
              -0.012500000000000067,
              0.03749999999999998,
              -0.08333333333333337,
              -0.22083333333333344,
              -0.10833333333333328,
              0.13750000000000007,
              0.04166666666666663,
              0.09791666666666665,
              0.0625,
              -0.06249999999999989,
              0.04166666666666663,
              -0.002083333333333215,
              -0.06458333333333333,
              -0.05833333333333357,
              0.014583333333333282,
              -0.07291666666666652,
              0.008333333333333193,
              -0.08750000000000024
            ]
          },
          "overall_coordination_rate": {
            "mean": 0.7131666666666666,
            "std": 0.06027570754076828,
            "se": 0.011004788229887676,
            "ci_95_lower": 0.6906593475735072,
            "ci_95_upper": 0.735673985759826,
            "n": 30,
            "raw_values": [
              0.6975,
              0.78,
              0.8075,
              0.705,
              0.7725,
              0.7325,
              0.7275,
              0.69,
              0.7475,
              0.56,
              0.77,
              0.77,
              0.755,
              0.6925,
              0.66,
              0.67,
              0.68,
              0.59,
              0.74,
              0.7375,
              0.7375,
              0.7375,
              0.7725,
              0.79,
              0.72,
              0.6925,
              0.5875,
              0.7,
              0.725,
              0.6475
            ]
          },
          "group0_prop_A": {
            "mean": 0.5559166666666667,
            "std": 0.28791947160002357,
            "se": 0.05256666311343365
          },
          "group1_prop_A": {
            "mean": 0.36091666666666666,
            "std": 0.26500689917282416,
            "se": 0.04838341885715098
          }
        }
      }
    },
    "stag_hunt": {
      "Recent-dominant": {
        "weights": {
          "recent": 0.9,
          "group": 0.05,
          "global": 0.05
        },
        "statistics": {
          "final_coordination_rate": {
            "mean": 0.9029166666666666,
            "std": 0.02001705451020124,
            "se": 0.0036545974300159143,
            "ci_95_lower": 0.8954421756727361,
            "ci_95_upper": 0.9103911576605971,
            "n": 30,
            "raw_values": [
              0.90625,
              0.925,
              0.8875,
              0.85625,
              0.8875,
              0.91875,
              0.875,
              0.875,
              0.9125,
              0.90625,
              0.90625,
              0.90625,
              0.90625,
              0.89375,
              0.86875,
              0.9375,
              0.94375,
              0.8875,
              0.8875,
              0.93125,
              0.89375,
              0.89375,
              0.90625,
              0.91875,
              0.91875,
              0.90625,
              0.91875,
              0.9125,
              0.89375,
              0.90625
            ]
          },
          "final_group_favoritism": {
            "mean": -0.03784722222222222,
            "std": 0.051739044055310345,
            "se": 0.009446213844282347,
            "ci_95_lower": -0.05716689878247279,
            "ci_95_upper": -0.01852754566197165,
            "n": 30,
            "raw_values": [
              -0.07499999999999996,
              0.054166666666666696,
              -0.04166666666666685,
              -0.09583333333333344,
              -0.04166666666666685,
              -0.11875000000000024,
              -0.06666666666666676,
              -0.02499999999999991,
              -0.0625,
              -0.16666666666666652,
              -0.025000000000000022,
              -0.006249999999999978,
              -0.012500000000000067,
              0.043749999999999956,
              -0.06666666666666654,
              -0.05833333333333324,
              -0.02083333333333348,
              -0.05208333333333337,
              -0.033333333333333215,
              0.025000000000000022,
              -0.008333333333333415,
              -0.06249999999999989,
              -0.0625,
              -0.002083333333333215,
              0.05416666666666681,
              0.025000000000000022,
              -0.025000000000000022,
              -0.03541666666666654,
              -0.03749999999999998,
              -0.13541666666666663
            ]
          },
          "overall_coordination_rate": {
            "mean": 0.8195833333333333,
            "std": 0.021009884099753073,
            "se": 0.0038358624840012924,
            "ci_95_lower": 0.8117381136779092,
            "ci_95_upper": 0.8274285529887575,
            "n": 30,
            "raw_values": [
              0.8125,
              0.87,
              0.83,
              0.775,
              0.815,
              0.805,
              0.815,
              0.8025,
              0.8275,
              0.83,
              0.8425,
              0.8225,
              0.81,
              0.8075,
              0.795,
              0.81,
              0.8225,
              0.81,
              0.79,
              0.8375,
              0.7775,
              0.84,
              0.8175,
              0.85,
              0.84,
              0.8125,
              0.825,
              0.8125,
              0.8375,
              0.845
            ]
          },
          "group0_prop_A": {
            "mean": 0.19874999999999998,
            "std": 0.01208358105176122,
            "se": 0.0022061499724972066
          },
          "group1_prop_A": {
            "mean": 0.08133333333333331,
            "std": 0.014705929682141553,
            "se": 0.0026849231386645686
          }
        }
      },
      "Group-dominant": {
        "weights": {
          "recent": 0.05,
          "group": 0.9,
          "global": 0.05
        },
        "statistics": {
          "final_coordination_rate": {
            "mean": 0.9029166666666666,
            "std": 0.02001705451020124,
            "se": 0.0036545974300159143,
            "ci_95_lower": 0.8954421756727361,
            "ci_95_upper": 0.9103911576605971,
            "n": 30,
            "raw_values": [
              0.90625,
              0.925,
              0.8875,
              0.85625,
              0.8875,
              0.91875,
              0.875,
              0.875,
              0.9125,
              0.90625,
              0.90625,
              0.90625,
              0.90625,
              0.89375,
              0.86875,
              0.9375,
              0.94375,
              0.8875,
              0.8875,
              0.93125,
              0.89375,
              0.89375,
              0.90625,
              0.91875,
              0.91875,
              0.90625,
              0.91875,
              0.9125,
              0.89375,
              0.90625
            ]
          },
          "final_group_favoritism": {
            "mean": -0.03784722222222222,
            "std": 0.051739044055310345,
            "se": 0.009446213844282347,
            "ci_95_lower": -0.05716689878247279,
            "ci_95_upper": -0.01852754566197165,
            "n": 30,
            "raw_values": [
              -0.07499999999999996,
              0.054166666666666696,
              -0.04166666666666685,
              -0.09583333333333344,
              -0.04166666666666685,
              -0.11875000000000024,
              -0.06666666666666676,
              -0.02499999999999991,
              -0.0625,
              -0.16666666666666652,
              -0.025000000000000022,
              -0.006249999999999978,
              -0.012500000000000067,
              0.043749999999999956,
              -0.06666666666666654,
              -0.05833333333333324,
              -0.02083333333333348,
              -0.05208333333333337,
              -0.033333333333333215,
              0.025000000000000022,
              -0.008333333333333415,
              -0.06249999999999989,
              -0.0625,
              -0.002083333333333215,
              0.05416666666666681,
              0.025000000000000022,
              -0.025000000000000022,
              -0.03541666666666654,
              -0.03749999999999998,
              -0.13541666666666663
            ]
          },
          "overall_coordination_rate": {
            "mean": 0.8044166666666667,
            "std": 0.01981251926283555,
            "se": 0.003617254573753552,
            "ci_95_lower": 0.7970185503892858,
            "ci_95_upper": 0.8118147829440475,
            "n": 30,
            "raw_values": [
              0.7975,
              0.8475,
              0.8,
              0.775,
              0.8025,
              0.795,
              0.7975,
              0.7875,
              0.815,
              0.82,
              0.8275,
              0.805,
              0.795,
              0.79,
              0.775,
              0.7975,
              0.8075,
              0.7975,
              0.78,
              0.815,
              0.7575,
              0.835,
              0.81,
              0.835,
              0.8275,
              0.8,
              0.8025,
              0.7975,
              0.8125,
              0.8275
            ]
          },
          "group0_prop_A": {
            "mean": 0.21225,
            "std": 0.01897536969791139,
            "se": 0.003464412673515353
          },
          "group1_prop_A": {
            "mean": 0.08916666666666667,
            "std": 0.016126297506382788,
            "se": 0.002944245637761721
          }
        }
      },
      "Global-dominant": {
        "weights": {
          "recent": 0.05,
          "group": 0.05,
          "global": 0.9
        },
        "statistics": {
          "final_coordination_rate": {
            "mean": 0.9029166666666666,
            "std": 0.02001705451020124,
            "se": 0.0036545974300159143,
            "ci_95_lower": 0.8954421756727361,
            "ci_95_upper": 0.9103911576605971,
            "n": 30,
            "raw_values": [
              0.90625,
              0.925,
              0.8875,
              0.85625,
              0.8875,
              0.91875,
              0.875,
              0.875,
              0.9125,
              0.90625,
              0.90625,
              0.90625,
              0.90625,
              0.89375,
              0.86875,
              0.9375,
              0.94375,
              0.8875,
              0.8875,
              0.93125,
              0.89375,
              0.89375,
              0.90625,
              0.91875,
              0.91875,
              0.90625,
              0.91875,
              0.9125,
              0.89375,
              0.90625
            ]
          },
          "final_group_favoritism": {
            "mean": -0.03784722222222222,
            "std": 0.051739044055310345,
            "se": 0.009446213844282347,
            "ci_95_lower": -0.05716689878247279,
            "ci_95_upper": -0.01852754566197165,
            "n": 30,
            "raw_values": [
              -0.07499999999999996,
              0.054166666666666696,
              -0.04166666666666685,
              -0.09583333333333344,
              -0.04166666666666685,
              -0.11875000000000024,
              -0.06666666666666676,
              -0.02499999999999991,
              -0.0625,
              -0.16666666666666652,
              -0.025000000000000022,
              -0.006249999999999978,
              -0.012500000000000067,
              0.043749999999999956,
              -0.06666666666666654,
              -0.05833333333333324,
              -0.02083333333333348,
              -0.05208333333333337,
              -0.033333333333333215,
              0.025000000000000022,
              -0.008333333333333415,
              -0.06249999999999989,
              -0.0625,
              -0.002083333333333215,
              0.05416666666666681,
              0.025000000000000022,
              -0.025000000000000022,
              -0.03541666666666654,
              -0.03749999999999998,
              -0.13541666666666663
            ]
          },
          "overall_coordination_rate": {
            "mean": 0.8196666666666667,
            "std": 0.020985764195057904,
            "se": 0.003831458812039153,
            "ci_95_lower": 0.8118304535316736,
            "ci_95_upper": 0.8275028798016597,
            "n": 30,
            "raw_values": [
              0.8125,
              0.87,
              0.83,
              0.775,
              0.815,
              0.805,
              0.815,
              0.8025,
              0.8275,
              0.83,
              0.8425,
              0.8225,
              0.81,
              0.8075,
              0.795,
              0.81,
              0.8225,
              0.81,
              0.79,
              0.8375,
              0.7775,
              0.84,
              0.8175,
              0.85,
              0.84,
              0.8125,
              0.825,
              0.815,
              0.8375,
              0.845
            ]
          },
          "group0_prop_A": {
            "mean": 0.19874999999999998,
            "std": 0.01208358105176122,
            "se": 0.0022061499724972066
          },
          "group1_prop_A": {
            "mean": 0.08124999999999999,
            "std": 0.014779266698247617,
            "se": 0.0026983125846717056
          }
        }
      },
      "Balanced": {
        "weights": {
          "recent": 0.33,
          "group": 0.33,
          "global": 0.34
        },
        "statistics": {
          "final_coordination_rate": {
            "mean": 0.9029166666666666,
            "std": 0.02001705451020124,
            "se": 0.0036545974300159143,
            "ci_95_lower": 0.8954421756727361,
            "ci_95_upper": 0.9103911576605971,
            "n": 30,
            "raw_values": [
              0.90625,
              0.925,
              0.8875,
              0.85625,
              0.8875,
              0.91875,
              0.875,
              0.875,
              0.9125,
              0.90625,
              0.90625,
              0.90625,
              0.90625,
              0.89375,
              0.86875,
              0.9375,
              0.94375,
              0.8875,
              0.8875,
              0.93125,
              0.89375,
              0.89375,
              0.90625,
              0.91875,
              0.91875,
              0.90625,
              0.91875,
              0.9125,
              0.89375,
              0.90625
            ]
          },
          "final_group_favoritism": {
            "mean": -0.03784722222222222,
            "std": 0.051739044055310345,
            "se": 0.009446213844282347,
            "ci_95_lower": -0.05716689878247279,
            "ci_95_upper": -0.01852754566197165,
            "n": 30,
            "raw_values": [
              -0.07499999999999996,
              0.054166666666666696,
              -0.04166666666666685,
              -0.09583333333333344,
              -0.04166666666666685,
              -0.11875000000000024,
              -0.06666666666666676,
              -0.02499999999999991,
              -0.0625,
              -0.16666666666666652,
              -0.025000000000000022,
              -0.006249999999999978,
              -0.012500000000000067,
              0.043749999999999956,
              -0.06666666666666654,
              -0.05833333333333324,
              -0.02083333333333348,
              -0.05208333333333337,
              -0.033333333333333215,
              0.025000000000000022,
              -0.008333333333333415,
              -0.06249999999999989,
              -0.0625,
              -0.002083333333333215,
              0.05416666666666681,
              0.025000000000000022,
              -0.025000000000000022,
              -0.03541666666666654,
              -0.03749999999999998,
              -0.13541666666666663
            ]
          },
          "overall_coordination_rate": {
            "mean": 0.8189999999999997,
            "std": 0.02101518334525022,
            "se": 0.0038368299894334743,
            "ci_95_lower": 0.8111528015737867,
            "ci_95_upper": 0.8268471984262128,
            "n": 30,
            "raw_values": [
              0.81,
              0.8675,
              0.8275,
              0.775,
              0.815,
              0.805,
              0.81,
              0.8,
              0.8275,
              0.83,
              0.84,
              0.8225,
              0.81,
              0.8075,
              0.795,
              0.81,
              0.8225,
              0.81,
              0.79,
              0.8375,
              0.775,
              0.84,
              0.8175,
              0.85,
              0.84,
              0.81,
              0.825,
              0.8175,
              0.8375,
              0.845
            ]
          },
          "group0_prop_A": {
            "mean": 0.19899999999999995,
            "std": 0.012205143065174588,
            "se": 0.0022283440581246225
          },
          "group1_prop_A": {
            "mean": 0.08183333333333334,
            "std": 0.015085008162555558,
            "se": 0.0027541330835937454
          }
        }
      },
      "Original": {
        "weights": {
          "recent": 0.5,
          "group": 0.3,
          "global": 0.2
        },
        "statistics": {
          "final_coordination_rate": {
            "mean": 0.9029166666666666,
            "std": 0.02001705451020124,
            "se": 0.0036545974300159143,
            "ci_95_lower": 0.8954421756727361,
            "ci_95_upper": 0.9103911576605971,
            "n": 30,
            "raw_values": [
              0.90625,
              0.925,
              0.8875,
              0.85625,
              0.8875,
              0.91875,
              0.875,
              0.875,
              0.9125,
              0.90625,
              0.90625,
              0.90625,
              0.90625,
              0.89375,
              0.86875,
              0.9375,
              0.94375,
              0.8875,
              0.8875,
              0.93125,
              0.89375,
              0.89375,
              0.90625,
              0.91875,
              0.91875,
              0.90625,
              0.91875,
              0.9125,
              0.89375,
              0.90625
            ]
          },
          "final_group_favoritism": {
            "mean": -0.03784722222222222,
            "std": 0.051739044055310345,
            "se": 0.009446213844282347,
            "ci_95_lower": -0.05716689878247279,
            "ci_95_upper": -0.01852754566197165,
            "n": 30,
            "raw_values": [
              -0.07499999999999996,
              0.054166666666666696,
              -0.04166666666666685,
              -0.09583333333333344,
              -0.04166666666666685,
              -0.11875000000000024,
              -0.06666666666666676,
              -0.02499999999999991,
              -0.0625,
              -0.16666666666666652,
              -0.025000000000000022,
              -0.006249999999999978,
              -0.012500000000000067,
              0.043749999999999956,
              -0.06666666666666654,
              -0.05833333333333324,
              -0.02083333333333348,
              -0.05208333333333337,
              -0.033333333333333215,
              0.025000000000000022,
              -0.008333333333333415,
              -0.06249999999999989,
              -0.0625,
              -0.002083333333333215,
              0.05416666666666681,
              0.025000000000000022,
              -0.025000000000000022,
              -0.03541666666666654,
              -0.03749999999999998,
              -0.13541666666666663
            ]
          },
          "overall_coordination_rate": {
            "mean": 0.8192499999999999,
            "std": 0.021133300246538495,
            "se": 0.003858395086519541,
            "ci_95_lower": 0.8113586959979909,
            "ci_95_upper": 0.8271413040020089,
            "n": 30,
            "raw_values": [
              0.8125,
              0.87,
              0.8275,
              0.775,
              0.815,
              0.805,
              0.8125,
              0.8,
              0.8275,
              0.83,
              0.84,
              0.8225,
              0.81,
              0.8075,
              0.795,
              0.81,
              0.8225,
              0.81,
              0.79,
              0.8375,
              0.775,
              0.84,
              0.8175,
              0.85,
              0.84,
              0.8125,
              0.825,
              0.815,
              0.8375,
              0.845
            ]
          },
          "group0_prop_A": {
            "mean": 0.1989166666666666,
            "std": 0.012206614468459682,
            "se": 0.0022286126983814335
          },
          "group1_prop_A": {
            "mean": 0.08166666666666665,
            "std": 0.014860462083439175,
            "se": 0.0027131367660166183
          }
        }
      }
    },
    "chicken": {
      "Recent-dominant": {
        "weights": {
          "recent": 0.9,
          "group": 0.05,
          "global": 0.05
        },
        "statistics": {
          "final_coordination_rate": {
            "mean": 0.5395833333333333,
            "std": 0.03440274481163839,
            "se": 0.006281053124476054,
            "ci_95_lower": 0.5267371372993447,
            "ci_95_upper": 0.5524295293673219,
            "n": 30,
            "raw_values": [
              0.5875,
              0.55625,
              0.6,
              0.54375,
              0.55,
              0.475,
              0.56875,
              0.5125,
              0.525,
              0.56875,
              0.51875,
              0.55,
              0.525,
              0.48125,
              0.54375,
              0.49375,
              0.53125,
              0.575,
              0.53125,
              0.5625,
              0.51875,
              0.51875,
              0.58125,
              0.6,
              0.4875,
              0.5625,
              0.575,
              0.525,
              0.51875,
              0.5
            ]
          },
          "final_group_favoritism": {
            "mean": -0.0005555555555555443,
            "std": 0.09746845528939423,
            "se": 0.017795223869061648,
            "ci_95_lower": -0.03695087490094783,
            "ci_95_upper": 0.03583976378983674,
            "n": 30,
            "raw_values": [
              -0.029166666666666563,
              -0.01666666666666672,
              0.04166666666666674,
              -0.10000000000000009,
              0.24583333333333335,
              -0.08125000000000004,
              0.029166666666666563,
              0.08125000000000004,
              0.10833333333333328,
              0.025000000000000022,
              0.19583333333333336,
              0.039583333333333304,
              0.10833333333333334,
              -0.09583333333333327,
              0.0666666666666666,
              -0.02916666666666662,
              0.0,
              0.025000000000000022,
              0.008333333333333304,
              0.08750000000000002,
              -0.17500000000000004,
              0.050000000000000044,
              -0.08124999999999993,
              -0.09999999999999998,
              -0.029166666666666563,
              -0.18541666666666684,
              0.010416666666666852,
              -0.058333333333333404,
              -0.06666666666666654,
              -0.09166666666666656
            ]
          },
          "overall_coordination_rate": {
            "mean": 0.5458333333333333,
            "std": 0.023519373281195858,
            "se": 0.004294030428165088,
            "ci_95_lower": 0.5370510550174302,
            "ci_95_upper": 0.5546156116492363,
            "n": 30,
            "raw_values": [
              0.54,
              0.55,
              0.5675,
              0.5425,
              0.59,
              0.515,
              0.535,
              0.51,
              0.5425,
              0.5775,
              0.5625,
              0.5675,
              0.5725,
              0.4875,
              0.5525,
              0.5575,
              0.555,
              0.545,
              0.57,
              0.575,
              0.515,
              0.535,
              0.5775,
              0.5375,
              0.525,
              0.525,
              0.5425,
              0.525,
              0.545,
              0.5325
            ]
          },
          "group0_prop_A": {
            "mean": 0.7155833333333331,
            "std": 0.0423993907188928,
            "se": 0.007741034240404256
          },
          "group1_prop_A": {
            "mean": 0.5709166666666666,
            "std": 0.03822846099289189,
            "se": 0.00697953014150441
          }
        }
      },
      "Group-dominant": {
        "weights": {
          "recent": 0.05,
          "group": 0.9,
          "global": 0.05
        },
        "statistics": {
          "final_coordination_rate": {
            "mean": 0.3081249999999999,
            "std": 0.03746945595161938,
            "se": 0.006840955414049378,
            "ci_95_lower": 0.29413367520667794,
            "ci_95_upper": 0.3221163247933219,
            "n": 30,
            "raw_values": [
              0.275,
              0.31875,
              0.31875,
              0.30625,
              0.3,
              0.30625,
              0.2875,
              0.3,
              0.35625,
              0.275,
              0.30625,
              0.26875,
              0.325,
              0.31875,
              0.3,
              0.275,
              0.31875,
              0.3125,
              0.35625,
              0.36875,
              0.4375,
              0.26875,
              0.26875,
              0.26875,
              0.30625,
              0.2625,
              0.325,
              0.28125,
              0.34375,
              0.2875
            ]
          },
          "final_group_favoritism": {
            "mean": 0.42534722222222227,
            "std": 0.0753882895216407,
            "se": 0.013763955580910987,
            "ci_95_lower": 0.39719677227514527,
            "ci_95_upper": 0.45349767216929926,
            "n": 30,
            "raw_values": [
              0.5041666666666665,
              0.4166666666666666,
              0.5041666666666667,
              0.4,
              0.3791666666666666,
              0.4395833333333333,
              0.525,
              0.45833333333333337,
              0.5,
              0.43333333333333335,
              0.5083333333333333,
              0.30624999999999997,
              0.49999999999999994,
              0.4625,
              0.4125,
              0.38333333333333336,
              0.3666666666666667,
              0.4354166666666667,
              0.5416666666666666,
              0.5437499999999998,
              0.43333333333333324,
              0.45000000000000007,
              0.3125,
              0.3291666666666666,
              0.4625,
              0.24791666666666665,
              0.3291666666666666,
              0.40208333333333335,
              0.3458333333333335,
              0.4270833333333334
            ]
          },
          "overall_coordination_rate": {
            "mean": 0.38191666666666657,
            "std": 0.028585046528866648,
            "se": 0.005218891597065004,
            "ci_95_lower": 0.3712428348732719,
            "ci_95_upper": 0.3925904984600612,
            "n": 30,
            "raw_values": [
              0.3625,
              0.4075,
              0.33,
              0.37,
              0.4175,
              0.365,
              0.385,
              0.3625,
              0.4075,
              0.3575,
              0.4375,
              0.4075,
              0.37,
              0.37,
              0.39,
              0.36,
              0.4,
              0.365,
              0.38,
              0.395,
              0.435,
              0.35,
              0.41,
              0.3575,
              0.3575,
              0.3225,
              0.4125,
              0.375,
              0.385,
              0.4125
            ]
          },
          "group0_prop_A": {
            "mean": 0.8087500000000001,
            "std": 0.015267019897534819,
            "se": 0.00278736372792001
          },
          "group1_prop_A": {
            "mean": 0.38150000000000006,
            "std": 0.024710391503896947,
            "se": 0.004511479610489455
          }
        }
      },
      "Global-dominant": {
        "weights": {
          "recent": 0.05,
          "group": 0.05,
          "global": 0.9
        },
        "statistics": {
          "final_coordination_rate": {
            "mean": 0.5585416666666666,
            "std": 0.045912777282757486,
            "se": 0.008382487931825673,
            "ci_95_lower": 0.541397553873677,
            "ci_95_upper": 0.5756857794596562,
            "n": 30,
            "raw_values": [
              0.54375,
              0.60625,
              0.54375,
              0.53125,
              0.60625,
              0.59375,
              0.6,
              0.575,
              0.50625,
              0.5125,
              0.60625,
              0.5625,
              0.54375,
              0.53125,
              0.58125,
              0.66875,
              0.59375,
              0.5625,
              0.53125,
              0.56875,
              0.5625,
              0.56875,
              0.46875,
              0.63125,
              0.5125,
              0.54375,
              0.6,
              0.48125,
              0.53125,
              0.4875
            ]
          },
          "final_group_favoritism": {
            "mean": 0.018958333333333337,
            "std": 0.11947481208681633,
            "se": 0.021813016544546725,
            "ci_95_lower": -0.02565429468790469,
            "ci_95_upper": 0.06357096135457137,
            "n": 30,
            "raw_values": [
              -0.025000000000000022,
              -0.043749999999999956,
              -0.008333333333333193,
              -0.050000000000000044,
              -0.03333333333333344,
              -0.07708333333333339,
              0.11250000000000004,
              0.2083333333333332,
              0.12083333333333335,
              -0.09999999999999992,
              -0.10833333333333328,
              0.04375000000000007,
              0.4666666666666667,
              -0.16666666666666663,
              0.07500000000000007,
              0.12916666666666665,
              -0.06458333333333321,
              -0.03541666666666676,
              0.1375,
              0.012499999999999956,
              -0.04166666666666663,
              0.03749999999999987,
              0.024999999999999967,
              0.014583333333333282,
              0.050000000000000044,
              -0.033333333333333326,
              0.0854166666666667,
              -0.054166666666666696,
              -0.02083333333333326,
              -0.08749999999999997
            ]
          },
          "overall_coordination_rate": {
            "mean": 0.5734999999999999,
            "std": 0.028281223209170012,
            "se": 0.005163421301833687,
            "ci_95_lower": 0.5629396176986702,
            "ci_95_upper": 0.5840603823013296,
            "n": 30,
            "raw_values": [
              0.5725,
              0.63,
              0.535,
              0.5725,
              0.6175,
              0.5675,
              0.575,
              0.565,
              0.565,
              0.575,
              0.6075,
              0.59,
              0.59,
              0.52,
              0.5675,
              0.5975,
              0.5825,
              0.5675,
              0.55,
              0.59,
              0.5275,
              0.575,
              0.5825,
              0.605,
              0.555,
              0.5275,
              0.5875,
              0.535,
              0.6225,
              0.55
            ]
          },
          "group0_prop_A": {
            "mean": 0.7948333333333334,
            "std": 0.06565299758544177,
            "se": 0.011986542581792888
          },
          "group1_prop_A": {
            "mean": 0.58,
            "std": 0.0632182863113034,
            "se": 0.011542027153173644
          }
        }
      },
      "Balanced": {
        "weights": {
          "recent": 0.33,
          "group": 0.33,
          "global": 0.34
        },
        "statistics": {
          "final_coordination_rate": {
            "mean": 0.41312499999999996,
            "std": 0.05019761594490046,
            "se": 0.009164788862000995,
            "ci_95_lower": 0.3943809021555479,
            "ci_95_upper": 0.43186909784445204,
            "n": 30,
            "raw_values": [
              0.38125,
              0.4625,
              0.46875,
              0.35,
              0.41875,
              0.39375,
              0.40625,
              0.3875,
              0.4,
              0.4,
              0.53125,
              0.4125,
              0.4375,
              0.45,
              0.44375,
              0.31875,
              0.4,
              0.35625,
              0.375,
              0.4625,
              0.43125,
              0.38125,
              0.36875,
              0.50625,
              0.4,
              0.475,
              0.375,
              0.35,
              0.48125,
              0.36875
            ]
          },
          "final_group_favoritism": {
            "mean": 0.32354166666666667,
            "std": 0.16036315162003265,
            "se": 0.029278171844971,
            "ci_95_lower": 0.26366108174187686,
            "ci_95_upper": 0.3834222515914565,
            "n": 30,
            "raw_values": [
              0.36249999999999993,
              0.19791666666666663,
              0.1833333333333334,
              0.48750000000000004,
              0.43333333333333335,
              0.3729166666666666,
              0.48750000000000004,
              0.5833333333333334,
              0.3041666666666667,
              0.35208333333333336,
              0.04999999999999993,
              0.1875,
              0.6166666666666667,
              0.3270833333333333,
              0.3166666666666667,
              0.2166666666666666,
              0.29374999999999996,
              0.44583333333333336,
              0.3916666666666666,
              0.35208333333333336,
              0.23333333333333334,
              0.5625,
              0.3,
              0.0020833333333333814,
              0.15833333333333338,
              -0.03125,
              0.425,
              0.37083333333333335,
              0.4666666666666667,
              0.25625
            ]
          },
          "overall_coordination_rate": {
            "mean": 0.4771666666666667,
            "std": 0.03164820998733261,
            "se": 0.005778146171574119,
            "ci_95_lower": 0.4653490308399877,
            "ci_95_upper": 0.4889843024933457,
            "n": 30,
            "raw_values": [
              0.435,
              0.515,
              0.4575,
              0.4775,
              0.51,
              0.465,
              0.4625,
              0.4425,
              0.48,
              0.4975,
              0.56,
              0.505,
              0.48,
              0.4775,
              0.4775,
              0.4125,
              0.465,
              0.445,
              0.4525,
              0.5175,
              0.455,
              0.465,
              0.4875,
              0.54,
              0.4825,
              0.4825,
              0.455,
              0.4375,
              0.495,
              0.48
            ]
          },
          "group0_prop_A": {
            "mean": 0.8580833333333333,
            "std": 0.028509551736740534,
            "se": 0.005205108196857792
          },
          "group1_prop_A": {
            "mean": 0.4405833333333334,
            "std": 0.04116662594813938,
            "se": 0.007515963216057811
          }
        }
      },
      "Original": {
        "weights": {
          "recent": 0.5,
          "group": 0.3,
          "global": 0.2
        },
        "statistics": {
          "final_coordination_rate": {
            "mean": 0.40791666666666665,
            "std": 0.04595529749458807,
            "se": 0.008390251024882178,
            "ci_95_lower": 0.39075667656564333,
            "ci_95_upper": 0.42507665676768996,
            "n": 30,
            "raw_values": [
              0.35,
              0.4125,
              0.4,
              0.35625,
              0.375,
              0.35,
              0.41875,
              0.41875,
              0.39375,
              0.4,
              0.48125,
              0.3875,
              0.425,
              0.5,
              0.38125,
              0.39375,
              0.43125,
              0.35625,
              0.3625,
              0.48125,
              0.45,
              0.3875,
              0.3625,
              0.53125,
              0.39375,
              0.44375,
              0.38125,
              0.38125,
              0.44375,
              0.3875
            ]
          },
          "final_group_favoritism": {
            "mean": 0.2877083333333334,
            "std": 0.16754559016722212,
            "se": 0.030589499715034437,
            "ci_95_lower": 0.2251457817781351,
            "ci_95_upper": 0.3502708848885317,
            "n": 30,
            "raw_values": [
              0.3041666666666667,
              0.3375,
              0.22499999999999998,
              0.47500000000000003,
              0.3874999999999999,
              0.41250000000000003,
              0.4666666666666667,
              0.45624999999999993,
              0.4,
              0.062499999999999944,
              0.020833333333333315,
              0.2770833333333334,
              0.5041666666666667,
              0.2895833333333334,
              0.3124999999999999,
              0.2874999999999999,
              0.09166666666666667,
              0.3416666666666667,
              0.4125,
              0.14166666666666655,
              0.2916666666666667,
              0.49999999999999994,
              0.35625000000000007,
              -0.1291666666666667,
              0.1625000000000001,
              -0.11041666666666672,
              0.39791666666666664,
              0.27291666666666664,
              0.4124999999999999,
              0.27083333333333326
            ]
          },
          "overall_coordination_rate": {
            "mean": 0.46991666666666665,
            "std": 0.028204023720437264,
            "se": 0.005149326668031423,
            "ci_95_lower": 0.45938511112818436,
            "ci_95_upper": 0.48044822220514893,
            "n": 30,
            "raw_values": [
              0.4325,
              0.485,
              0.42,
              0.47,
              0.5125,
              0.4325,
              0.45,
              0.4525,
              0.475,
              0.4875,
              0.5375,
              0.46,
              0.465,
              0.4875,
              0.46,
              0.4525,
              0.4825,
              0.455,
              0.45,
              0.5025,
              0.475,
              0.4525,
              0.46,
              0.5475,
              0.47,
              0.45,
              0.4575,
              0.4575,
              0.4875,
              0.47
            ]
          },
          "group0_prop_A": {
            "mean": 0.8511666666666666,
            "std": 0.03458954728829499,
            "se": 0.006315158434563605
          },
          "group1_prop_A": {
            "mean": 0.43108333333333326,
            "std": 0.04384378289849743,
            "se": 0.008004742966622092
          }
        }
      }
    }
  },
  "comparisons": {
    "coordination": {
      "Recent-dominant_vs_Group-dominant": {
        "final_coordination_rate": {
          "t_statistic": 4.3011857349950295,
          "p_value": 6.598308933341307e-05,
          "cohens_d": 1.1105613813720439,
          "significant_at_05": true,
          "significant_at_01": true,
          "mean_diff": 0.06729166666666664
        },
        "final_group_favoritism": {
          "t_statistic": -3.9607345446098683,
          "p_value": 0.0002068539745021318,
          "cohens_d": -1.0226572620014958,
          "significant_at_05": true,
          "significant_at_01": true,
          "mean_diff": -0.1180555555555556
        }
      },
      "Recent-dominant_vs_Global-dominant": {
        "final_coordination_rate": {
          "t_statistic": 1.404978038569409,
          "p_value": 0.16536128103302972,
          "cohens_d": 0.3627637696777655,
          "significant_at_05": false,
          "significant_at_01": false,
          "mean_diff": 0.020625000000000004
        },
        "final_group_favoritism": {
          "t_statistic": -0.3654752693412745,
          "p_value": 0.7160861790198798,
          "cohens_d": -0.09436530877396175,
          "significant_at_05": false,
          "significant_at_01": false,
          "mean_diff": -0.005069444444444474
        }
      },
      "Recent-dominant_vs_Balanced": {
        "final_coordination_rate": {
          "t_statistic": 3.6906267921777,
          "p_value": 0.0004957863597671984,
          "cohens_d": 0.9529157402114089,
          "significant_at_05": true,
          "significant_at_01": true,
          "mean_diff": 0.057916666666666505
        },
        "final_group_favoritism": {
          "t_statistic": -0.8883789871368327,
          "p_value": 0.3780064618851847,
          "cohens_d": -0.22937846815343776,
          "significant_at_05": false,
          "significant_at_01": false,
          "mean_diff": -0.02333333333333331
        }
      },
      "Recent-dominant_vs_Original": {
        "final_coordination_rate": {
          "t_statistic": 2.204916373454338,
          "p_value": 0.0314392979723176,
          "cohens_d": 0.569306959611247,
          "significant_at_05": true,
          "significant_at_01": false,
          "mean_diff": 0.031458333333333366
        },
        "final_group_favoritism": {
          "t_statistic": 0.13177071849713062,
          "p_value": 0.8956216937214504,
          "cohens_d": 0.034023053217144834,
          "significant_at_05": false,
          "significant_at_01": false,
          "mean_diff": 0.002291666666666685
        }
      },
      "Group-dominant_vs_Global-dominant": {
        "final_coordination_rate": {
          "t_statistic": -2.295277398167851,
          "p_value": 0.02535269388138401,
          "cohens_d": -0.5926380758686918,
          "significant_at_05": true,
          "significant_at_01": false,
          "mean_diff": -0.046666666666666634
        },
        "final_group_favoritism": {
          "t_statistic": 3.7917892142393406,
          "p_value": 0.00035865110356376133,
          "cohens_d": 0.9790357652718583,
          "significant_at_05": true,
          "significant_at_01": true,
          "mean_diff": 0.11298611111111112
        }
      },
      "Group-dominant_vs_Balanced": {
        "final_coordination_rate": {
          "t_statistic": -0.4448473693954513,
          "p_value": 0.6580857749694875,
          "cohens_d": -0.1148590968848508,
          "significant_at_05": false,
          "significant_at_01": false,
          "mean_diff": -0.009375000000000133
        },
        "final_group_favoritism": {
          "t_statistic": 2.5449089950139183,
          "p_value": 0.013613574669736485,
          "cohens_d": 0.6570926770201572,
          "significant_at_05": true,
          "significant_at_01": false,
          "mean_diff": 0.09472222222222228
        }
      },
      "Group-dominant_vs_Original": {
        "final_coordination_rate": {
          "t_statistic": -1.7884708529766142,
          "p_value": 0.07892319631007151,
          "cohens_d": -0.46178118858372,
          "significant_at_05": false,
          "significant_at_01": false,
          "mean_diff": -0.03583333333333327
        },
        "final_group_favoritism": {
          "t_statistic": 3.809613663569904,
          "p_value": 0.00033860843767758944,
          "cohens_d": 0.9836380182993641,
          "significant_at_05": true,
          "significant_at_01": true,
          "mean_diff": 0.12034722222222227
        }
      },
      "Global-dominant_vs_Balanced": {
        "final_coordination_rate": {
          "t_statistic": 1.8308446706186539,
          "p_value": 0.07226228917448357,
          "cohens_d": 0.4727220612532433,
          "significant_at_05": false,
          "significant_at_01": false,
          "mean_diff": 0.0372916666666665
        },
        "final_group_favoritism": {
          "t_statistic": -0.6956358416476134,
          "p_value": 0.48943492675748,
          "cohens_d": -0.17961240198174575,
          "significant_at_05": false,
          "significant_at_01": false,
          "mean_diff": -0.018263888888888836
        }
      },
      "Global-dominant_vs_Original": {
        "final_coordination_rate": {
          "t_statistic": 0.5615551207589974,
          "p_value": 0.5765826921958233,
          "cohens_d": 0.14499290871180615,
          "significant_at_05": false,
          "significant_at_01": false,
          "mean_diff": 0.010833333333333361
        },
        "final_group_favoritism": {
          "t_statistic": 0.42363553805171333,
          "p_value": 0.6733985822492474,
          "cohens_d": 0.10938222558239359,
          "significant_at_05": false,
          "significant_at_01": false,
          "mean_diff": 0.0073611111111111585
        }
      },
      "Balanced_vs_Original": {
        "final_coordination_rate": {
          "t_statistic": -1.3180898844345792,
          "p_value": 0.1926556892222831,
          "cohens_d": -0.3403293447479723,
          "significant_at_05": false,
          "significant_at_01": false,
          "mean_diff": -0.02645833333333314
        },
        "final_group_favoritism": {
          "t_statistic": 0.9063313323221354,
          "p_value": 0.36851047572805584,
          "cohens_d": 0.23401374374864065,
          "significant_at_05": false,
          "significant_at_01": false,
          "mean_diff": 0.025624999999999995
        }
      }
    },
    "stag_hunt": {
      "Recent-dominant_vs_Group-dominant": {
        "final_coordination_rate": {
          "t_statistic": 0.0,
          "p_value": 1.0,
          "cohens_d": 0.0,
          "significant_at_05": false,
          "significant_at_01": false,
          "mean_diff": 0.0
        },
        "final_group_favoritism": {
          "t_statistic": 0.0,
          "p_value": 1.0,
          "cohens_d": 0.0,
          "significant_at_05": false,
          "significant_at_01": false,
          "mean_diff": 0.0
        }
      },
      "Recent-dominant_vs_Global-dominant": {
        "final_coordination_rate": {
          "t_statistic": 0.0,
          "p_value": 1.0,
          "cohens_d": 0.0,
          "significant_at_05": false,
          "significant_at_01": false,
          "mean_diff": 0.0
        },
        "final_group_favoritism": {
          "t_statistic": 0.0,
          "p_value": 1.0,
          "cohens_d": 0.0,
          "significant_at_05": false,
          "significant_at_01": false,
          "mean_diff": 0.0
        }
      },
      "Recent-dominant_vs_Balanced": {
        "final_coordination_rate": {
          "t_statistic": 0.0,
          "p_value": 1.0,
          "cohens_d": 0.0,
          "significant_at_05": false,
          "significant_at_01": false,
          "mean_diff": 0.0
        },
        "final_group_favoritism": {
          "t_statistic": 0.0,
          "p_value": 1.0,
          "cohens_d": 0.0,
          "significant_at_05": false,
          "significant_at_01": false,
          "mean_diff": 0.0
        }
      },
      "Recent-dominant_vs_Original": {
        "final_coordination_rate": {
          "t_statistic": 0.0,
          "p_value": 1.0,
          "cohens_d": 0.0,
          "significant_at_05": false,
          "significant_at_01": false,
          "mean_diff": 0.0
        },
        "final_group_favoritism": {
          "t_statistic": 0.0,
          "p_value": 1.0,
          "cohens_d": 0.0,
          "significant_at_05": false,
          "significant_at_01": false,
          "mean_diff": 0.0
        }
      },
      "Group-dominant_vs_Global-dominant": {
        "final_coordination_rate": {
          "t_statistic": 0.0,
          "p_value": 1.0,
          "cohens_d": 0.0,
          "significant_at_05": false,
          "significant_at_01": false,
          "mean_diff": 0.0
        },
        "final_group_favoritism": {
          "t_statistic": 0.0,
          "p_value": 1.0,
          "cohens_d": 0.0,
          "significant_at_05": false,
          "significant_at_01": false,
          "mean_diff": 0.0
        }
      },
      "Group-dominant_vs_Balanced": {
        "final_coordination_rate": {
          "t_statistic": 0.0,
          "p_value": 1.0,
          "cohens_d": 0.0,
          "significant_at_05": false,
          "significant_at_01": false,
          "mean_diff": 0.0
        },
        "final_group_favoritism": {
          "t_statistic": 0.0,
          "p_value": 1.0,
          "cohens_d": 0.0,
          "significant_at_05": false,
          "significant_at_01": false,
          "mean_diff": 0.0
        }
      },
      "Group-dominant_vs_Original": {
        "final_coordination_rate": {
          "t_statistic": 0.0,
          "p_value": 1.0,
          "cohens_d": 0.0,
          "significant_at_05": false,
          "significant_at_01": false,
          "mean_diff": 0.0
        },
        "final_group_favoritism": {
          "t_statistic": 0.0,
          "p_value": 1.0,
          "cohens_d": 0.0,
          "significant_at_05": false,
          "significant_at_01": false,
          "mean_diff": 0.0
        }
      },
      "Global-dominant_vs_Balanced": {
        "final_coordination_rate": {
          "t_statistic": 0.0,
          "p_value": 1.0,
          "cohens_d": 0.0,
          "significant_at_05": false,
          "significant_at_01": false,
          "mean_diff": 0.0
        },
        "final_group_favoritism": {
          "t_statistic": 0.0,
          "p_value": 1.0,
          "cohens_d": 0.0,
          "significant_at_05": false,
          "significant_at_01": false,
          "mean_diff": 0.0
        }
      },
      "Global-dominant_vs_Original": {
        "final_coordination_rate": {
          "t_statistic": 0.0,
          "p_value": 1.0,
          "cohens_d": 0.0,
          "significant_at_05": false,
          "significant_at_01": false,
          "mean_diff": 0.0
        },
        "final_group_favoritism": {
          "t_statistic": 0.0,
          "p_value": 1.0,
          "cohens_d": 0.0,
          "significant_at_05": false,
          "significant_at_01": false,
          "mean_diff": 0.0
        }
      },
      "Balanced_vs_Original": {
        "final_coordination_rate": {
          "t_statistic": 0.0,
          "p_value": 1.0,
          "cohens_d": 0.0,
          "significant_at_05": false,
          "significant_at_01": false,
          "mean_diff": 0.0
        },
        "final_group_favoritism": {
          "t_statistic": 0.0,
          "p_value": 1.0,
          "cohens_d": 0.0,
          "significant_at_05": false,
          "significant_at_01": false,
          "mean_diff": 0.0
        }
      }
    },
    "chicken": {
      "Recent-dominant_vs_Group-dominant": {
        "final_coordination_rate": {
          "t_statistic": 24.922552302783487,
          "p_value": 1.1214403316571093e-32,
          "cohens_d": 6.434975334244249,
          "significant_at_05": true,
          "significant_at_01": true,
          "mean_diff": 0.23145833333333338
        },
        "final_group_favoritism": {
          "t_statistic": -18.931509304682912,
          "p_value": 1.67224765094252e-26,
          "cohens_d": -4.888094683707178,
          "significant_at_05": true,
          "significant_at_01": true,
          "mean_diff": -0.4259027777777778
        }
      },
      "Recent-dominant_vs_Global-dominant": {
        "final_coordination_rate": {
          "t_statistic": -1.8099298539440691,
          "p_value": 0.0754885215594245,
          "cohens_d": -0.46732187880860016,
          "significant_at_05": false,
          "significant_at_01": false,
          "mean_diff": -0.0189583333333333
        },
        "final_group_favoritism": {
          "t_statistic": -0.693186837045559,
          "p_value": 0.4909589191379997,
          "cohens_d": -0.17898007171250965,
          "significant_at_05": false,
          "significant_at_01": false,
          "mean_diff": -0.019513888888888883
        }
      },
      "Recent-dominant_vs_Balanced": {
        "final_coordination_rate": {
          "t_statistic": 11.38179426637583,
          "p_value": 2.0646594593632262e-16,
          "cohens_d": 2.9387666429088437,
          "significant_at_05": true,
          "significant_at_01": true,
          "mean_diff": 0.12645833333333334
        },
        "final_group_favoritism": {
          "t_statistic": -9.459391700502836,
          "p_value": 2.335744675448066e-13,
          "cohens_d": -2.4424044347533425,
          "significant_at_05": true,
          "significant_at_01": true,
          "mean_diff": -0.3240972222222222
        }
      },
      "Recent-dominant_vs_Original": {
        "final_coordination_rate": {
          "t_statistic": 12.562610107257148,
          "p_value": 3.4237215733308593e-18,
          "cohens_d": 3.2436519820202605,
          "significant_at_05": true,
          "significant_at_01": true,
          "mean_diff": 0.13166666666666665
        },
        "final_group_favoritism": {
          "t_statistic": -8.145558774120795,
          "p_value": 3.4938806325307975e-11,
          "cohens_d": -2.1031742318482363,
          "significant_at_05": true,
          "significant_at_01": true,
          "mean_diff": -0.28826388888888893
        }
      },
      "Group-dominant_vs_Global-dominant": {
        "final_coordination_rate": {
          "t_statistic": -23.144623111461378,
          "p_value": 5.577319068675854e-31,
          "cohens_d": -5.975915990995815,
          "significant_at_05": true,
          "significant_at_01": true,
          "mean_diff": -0.2504166666666667
        },
        "final_group_favoritism": {
          "t_statistic": 15.756074461067318,
          "p_value": 1.274432290156652e-22,
          "cohens_d": 4.068200932621182,
          "significant_at_05": true,
          "significant_at_01": true,
          "mean_diff": 0.4063888888888889
        }
      },
      "Group-dominant_vs_Balanced": {
        "final_coordination_rate": {
          "t_statistic": -9.181183462012447,
          "p_value": 6.670961405278808e-13,
          "cohens_d": -2.3705713764566103,
          "significant_at_05": true,
          "significant_at_01": true,
          "mean_diff": -0.10500000000000004
        },
        "final_group_favoritism": {
          "t_statistic": 3.146799822188671,
          "p_value": 0.002605534474034302,
          "cohens_d": 0.8125002203456789,
          "significant_at_05": true,
          "significant_at_01": true,
          "mean_diff": 0.1018055555555556
        }
      },
      "Group-dominant_vs_Original": {
        "final_coordination_rate": {
          "t_statistic": -9.218064983954093,
          "p_value": 5.802275204218455e-13,
          "cohens_d": -2.3800941444741293,
          "significant_at_05": true,
          "significant_at_01": true,
          "mean_diff": -0.09979166666666672
        },
        "final_group_favoritism": {
          "t_statistic": 4.103299813220489,
          "p_value": 0.00012886577694676323,
          "cohens_d": 1.059467456073264,
          "significant_at_05": true,
          "significant_at_01": true,
          "mean_diff": 0.13763888888888887
        }
      },
      "Global-dominant_vs_Balanced": {
        "final_coordination_rate": {
          "t_statistic": 11.708150155015586,
          "p_value": 6.533602100282236e-17,
          "cohens_d": 3.0230313710180767,
          "significant_at_05": true,
          "significant_at_01": true,
          "mean_diff": 0.14541666666666664
        },
        "final_group_favoritism": {
          "t_statistic": -8.342341409917543,
          "p_value": 1.6383588703178293e-11,
          "cohens_d": -2.153983289932476,
          "significant_at_05": true,
          "significant_at_01": true,
          "mean_diff": -0.3045833333333333
        }
      },
      "Global-dominant_vs_Original": {
        "final_coordination_rate": {
          "t_statistic": 12.700125815231972,
          "p_value": 2.148694626253999e-18,
          "cohens_d": 3.279158385142155,
          "significant_at_05": true,
          "significant_at_01": true,
          "mean_diff": 0.15062499999999995
        },
        "final_group_favoritism": {
          "t_statistic": -7.1532624175403425,
          "p_value": 1.6201360112063014e-09,
          "cohens_d": -1.84696441427901,
          "significant_at_05": true,
          "significant_at_01": true,
          "mean_diff": -0.26875000000000004
        }
      },
      "Balanced_vs_Original": {
        "final_coordination_rate": {
          "t_statistic": 0.4191694819131144,
          "p_value": 0.6766406802150501,
          "cohens_d": 0.10822909484585887,
          "significant_at_05": false,
          "significant_at_01": false,
          "mean_diff": 0.005208333333333315
        },
        "final_group_favoritism": {
          "t_statistic": 0.8462636427186442,
          "p_value": 0.4008837885886469,
          "cohens_d": 0.21850433298334215,
          "significant_at_05": false,
          "significant_at_01": false,
          "mean_diff": 0.03583333333333327
        }
      }
    }
  }
}